nep4_zbl 2 O Hf 
zbl 0.75 1.5
cutoff 8 4 250 44
n_max 4 4
basis_size 12 12
l_max 4 2 0
ANN 30 0
 -1.5533842e+00
 -1.3961171e+00
  3.3405685e+00
 -1.6875142e+00
  3.5519030e+00
 -1.1462833e+00
  1.0116381e-01
  6.7952715e-02
  3.5003048e-01
 -1.7030668e-01
 -7.1256649e-01
 -1.5600224e+00
  5.0420427e-01
  1.5662048e+00
  6.6071171e-01
 -5.0812531e-01
 -3.2572895e-01
  7.4311060e-01
 -1.1954777e+00
  1.3949803e+00
 -6.0012668e-01
 -5.0848001e-01
  6.6789776e-01
 -7.8436345e-01
  2.7210480e-03
  2.1846552e-01
 -4.2398471e-02
  1.4517822e-02
 -7.2196305e-02
 -5.3533882e-01
 -3.4191072e-02
 -7.7979095e-02
 -1.4120042e+00
  2.0508022e+00
 -4.1690224e-01
 -4.8395681e-01
  1.1797905e-01
 -1.6266538e-01
  5.0959129e-02
 -9.3200477e-03
 -1.4279183e+00
  1.0652579e-01
 -2.8765094e-01
 -6.9196773e-01
 -1.1719827e-03
 -5.6879723e-01
 -3.8398403e-01
 -9.8231041e-01
 -1.0163052e+00
 -1.1246209e+00
 -1.4233644e+00
 -9.7076178e-01
 -8.9364243e-01
 -3.2399303e-01
  1.4149309e-02
  2.2001252e-02
  1.6074455e-01
  7.7645682e-02
  1.3389353e-02
  9.1075655e-03
  1.9938855e-02
 -7.9607405e-02
 -6.7291018e-03
  6.8432584e-02
 -7.3835095e-03
 -2.2786809e-02
 -3.5803532e-03
  4.8761861e-03
 -6.3879490e-03
  2.2497166e-02
  3.4890608e-03
  1.8671799e-02
  3.1707793e-02
 -4.8870429e-02
 -1.9023570e-05
 -6.1419070e-02
  2.2573497e-03
  1.3801302e-02
  2.0430773e-02
  2.1373753e-02
 -2.5856828e-02
 -7.4794115e-03
 -7.1273562e-03
 -8.6361952e-03
  1.0977860e-02
  2.1528669e-02
  6.0094874e-03
 -3.0552249e-02
 -1.4774554e-02
 -6.2929722e-03
 -6.1135310e-01
  1.9887526e-02
 -3.0682695e-01
  9.1953224e-01
 -6.4547473e-01
 -3.4369953e-02
  3.0126595e-01
 -1.8165929e-02
  7.5616993e-02
 -3.8231429e-02
 -1.9687304e-01
 -6.8616755e-03
 -3.3972260e-01
 -1.8103829e-01
 -1.3639644e-01
 -1.1910355e+00
 -2.6926747e-01
  5.1797139e-03
 -8.3521521e-01
 -3.5952756e-03
  7.5987077e-01
 -6.2408593e-02
  4.4019932e-01
 -2.3265010e-02
  1.2457320e-02
  3.4785651e-02
 -9.3590695e-01
  5.8341045e-02
 -3.4124655e-01
 -6.5846322e-03
  9.5071286e-01
 -8.8140690e-01
 -1.0541197e+00
 -3.9390899e-02
 -6.7397636e-01
  4.3877777e-01
  4.7048733e-01
 -7.7633411e-01
  8.0214584e-01
 -3.2974353e-01
  3.1883493e-01
 -1.5757373e-01
 -8.1808084e-01
  1.8354802e-01
 -2.4627013e+00
 -2.5718105e-01
  1.0639265e+00
  1.5450338e-01
 -9.5224369e-01
 -8.6650759e-01
 -8.8831031e-01
  5.5819947e-01
 -1.5909443e+00
 -1.7562282e-01
 -1.7365746e-01
  8.1663117e-02
  8.4073430e-01
  7.1579200e-01
 -4.2814305e-01
 -2.2796454e-02
  4.6642068e-01
 -5.4779783e-02
 -4.4556838e-01
 -6.9428071e-02
 -3.1187713e-02
  1.5238337e-01
 -9.2398334e-01
  1.8374674e-01
  7.3650938e-01
  4.0814039e-01
  5.4446990e-03
 -4.8339632e-01
  9.6483761e-01
  2.3060614e-01
  2.7252537e-01
 -3.2059692e-02
  3.4896791e-01
  2.8511392e-02
  6.9042408e-01
 -2.5642964e-01
  3.8858619e-01
  6.6770041e-01
 -1.3871707e-02
  1.7523861e-01
  4.2593192e-02
  6.6747911e-02
 -1.1678466e+00
 -6.4021642e-03
  3.1031793e-01
 -1.3201442e-01
  6.8169339e-03
  4.7573936e-03
  7.7245603e-03
 -4.7511641e-02
 -4.7533914e-02
 -2.7271273e-02
  2.5843592e-02
 -1.5981583e-02
  1.4571676e-02
 -3.6891356e-02
 -6.1368778e-02
  3.7512898e-03
 -2.8101203e-03
 -1.1170986e-01
  1.6563376e-03
 -5.7168992e-04
  2.1270134e-02
 -1.9786317e-02
  4.7334418e-02
  5.0790653e-02
 -8.7428745e-03
 -5.7358123e-02
 -5.6691788e-02
  4.8337746e-02
  3.3187447e-04
 -3.1732582e-04
 -7.9288892e-02
  5.2161511e-02
  3.8048409e-02
  4.4954855e-02
  1.0561645e-02
 -2.9749824e-02
  2.1458112e-02
  1.0856581e-02
 -3.1864222e-02
  9.0588629e-03
 -3.3456866e-02
 -1.2551477e-03
 -9.4641298e-03
 -6.6519424e-02
  3.3262737e-02
  2.9121663e-02
  5.0257418e-02
 -2.2861289e-02
  1.6314587e-02
  1.7113203e-02
 -4.6972863e-02
 -2.7230904e-02
 -9.1398065e-04
  1.0013446e-02
 -2.0375008e-02
  4.1204547e-03
  2.5824877e-02
 -1.4079484e-02
  2.7369779e-02
 -6.0363659e-03
  7.7950419e-03
  1.3294880e-02
 -7.2736745e-03
 -8.5742353e-03
  7.9887822e-02
  3.4030172e-01
  5.2396590e-01
  1.0425525e-01
 -9.9720396e-03
 -4.1197628e-01
  4.2480439e-01
 -5.7194126e-01
  2.9740049e-02
  1.0275854e-02
  6.1146196e-02
  1.6517022e+00
 -1.1662266e-02
 -2.4133386e-01
 -2.1769509e-02
 -2.1765687e-01
  6.6210961e-01
 -6.7576736e-01
  1.9757186e-01
 -6.4739192e-01
 -3.5957009e-01
 -7.3746997e-01
 -2.7454838e-01
 -5.6521393e-02
 -1.9129170e-01
 -6.7371383e-02
 -7.2697872e-01
  4.8399229e-02
  1.0489986e-01
  1.5167656e-03
 -3.3318326e+00
 -6.3909218e-02
 -2.7729642e+00
  6.2115723e-01
 -1.4336593e+00
  6.3389987e-01
  3.7841506e-02
  9.5411837e-01
 -1.5336981e-02
  6.1036491e-01
  3.6111861e-01
 -2.3854239e+00
 -1.5737851e-03
 -5.4196215e-01
  7.1373042e-03
 -4.2057219e-01
 -2.3335574e+00
  1.3107912e-01
 -1.1584100e+00
  5.9712154e-01
 -4.7217035e-01
 -2.2535858e+00
 -6.9284620e-04
  1.1485407e-02
  3.5460096e-02
 -3.0010408e-03
  1.9983162e-01
  2.1650704e-02
 -4.5966753e-01
 -3.5841549e-03
  1.7601755e-02
  8.9710448e-03
 -2.6406469e-03
  1.4104334e-02
 -1.4141700e-02
 -9.3275225e-03
 -4.5630774e-03
  4.4038616e-02
 -1.5087425e-02
  1.4408885e-02
 -3.9309398e-03
 -1.8914385e-02
 -6.2610600e-03
  7.8814300e-03
 -2.7512060e-02
 -1.5888473e-02
 -4.5742616e-03
  4.6605617e-02
 -3.1424817e-02
 -1.0833234e-03
  2.2012154e-02
 -5.7683703e-02
  1.1295796e-02
  2.9231109e-02
 -8.2675070e-03
 -1.2276430e-02
  1.5593769e-03
 -6.1631473e-03
 -1.7404020e-02
 -1.5782848e-02
 -1.7578206e-03
  7.9035247e-03
  2.5656173e-02
  1.2455444e-02
 -1.6574979e-02
  2.7992427e-02
 -6.6810567e-03
  1.2519993e-02
 -4.4025976e-02
  5.2069917e-02
 -1.0799933e-02
 -2.0434327e-02
  1.1730954e-03
  1.2923595e-02
 -1.8531928e-02
 -6.2942185e-04
  1.9058460e-02
  6.1256322e-03
  3.5805248e-02
 -6.6607958e-03
  1.8041123e-02
  2.4447843e-02
 -1.4436842e-02
 -8.4400214e-03
 -3.4760563e-03
 -2.4753269e-02
  3.0526537e-02
 -3.4755066e-02
  5.4855128e-03
 -4.1933022e-02
  7.8874350e-01
  2.9807994e-01
  8.8287580e-01
 -4.2366959e-02
 -8.0364215e-01
 -1.2714040e+00
  4.9528247e-01
 -1.1485488e+00
  9.4109491e-02
  3.6265265e-02
 -1.2928163e+00
 -2.0973849e-01
 -1.5770923e+00
 -8.1361520e-01
  7.0091558e-04
 -1.0796026e+00
 -4.0938309e-01
 -2.4113749e-01
 -1.8153520e-01
  6.0984578e-02
  6.0962047e-02
  4.6867672e-01
 -4.9281827e-01
 -4.8094270e-01
 -1.0780424e-01
  3.2565493e-02
  8.9389510e-02
  8.6869020e-03
  4.8171725e-02
  6.9392331e-02
 -1.0614427e+00
 -6.2720943e-04
  3.0752342e+00
 -1.2334282e+00
  3.6690407e+00
 -1.7859516e+00
 -2.5564829e-01
  5.8958769e-01
  6.2757216e-02
 -8.1405163e-01
 -1.3294373e+00
 -4.7609419e-02
  7.8440917e-01
 -1.6076301e+00
 -7.0976769e-03
  4.0848342e-01
 -1.4772035e+00
 -1.4631538e+00
 -7.6802534e-01
  7.7424347e-02
  1.2938232e+00
 -1.7059858e+00
 -5.7154906e-01
 -8.2183763e-02
 -2.8921232e-01
 -1.2834789e-01
 -8.5807055e-02
 -1.1391416e-01
  3.9016437e-02
  3.1840857e-02
  1.9572571e-01
  7.2030306e-01
  2.6134950e-01
  3.3105952e-01
 -2.5622594e-01
 -4.2617300e-01
  7.9108471e-01
 -1.0580621e-02
 -2.6168626e-02
 -4.5393223e-01
 -2.0176649e+00
  1.5474540e+00
 -6.1232084e-01
  8.2194257e-01
 -5.2398986e-01
  5.2110428e-01
  9.9708331e-01
 -1.1019132e+00
 -3.1911219e-03
 -2.9894230e-01
  6.1271101e-01
  5.7637948e-01
  1.8220620e-01
 -2.1431355e-02
  1.9254673e-02
  9.4930515e-02
 -8.6608046e-01
  9.0330578e-02
  4.7849634e-01
  4.1637458e-02
 -5.6670797e-01
  5.0426185e-01
  1.1017716e+00
 -2.8527301e-04
 -7.7269107e-01
  1.5950040e+00
 -1.5582093e-02
 -7.8770056e-02
  6.2490231e-01
 -1.2830810e-01
  1.6146777e+00
  4.1480798e-02
  6.3045788e-01
 -1.5397651e-02
 -6.7336589e-01
  1.1574367e-01
  3.8441315e-01
 -1.9876043e-01
 -7.4991804e-01
  9.3885452e-02
  5.3045481e-01
 -3.6137089e-01
  1.5990585e-01
  3.9098004e-01
 -5.8435488e-01
 -4.0068451e-01
  4.6165392e-01
  3.0549431e-01
 -5.9603624e-02
 -5.3087464e-03
 -1.1701569e-02
 -1.7934341e-02
 -4.3717593e-02
  1.7014343e-02
 -5.1322237e-02
  1.5941918e-02
  2.6800504e-02
 -5.1344754e-03
  2.2037320e-02
  2.1565268e-02
  5.0122973e-02
 -2.4583220e-02
  2.7090648e-02
  2.7539188e-02
  9.0609929e-03
 -9.0884557e-04
 -8.2189380e-04
  2.4118058e-02
  3.6425779e-03
  9.5060736e-02
 -1.3310982e-02
  1.5463824e-02
 -1.7957035e-02
 -1.8245881e-02
 -3.5140985e-03
  2.6563164e-02
 -3.4438567e-03
  4.5082448e-03
 -5.0787807e-02
 -2.1656645e-02
  1.3711317e+00
  1.1337234e+00
  1.2596558e+00
  2.5672248e-01
 -2.9874331e-01
 -1.0138477e+00
 -9.3686140e-01
 -1.0950276e-01
 -4.7894266e-01
  1.2369180e-02
 -2.8298074e-01
 -8.7517846e-01
 -9.3904519e-01
 -2.8932291e-01
 -2.8747582e-01
  3.7920401e-01
 -1.6006015e-01
  2.9780418e-01
 -1.3832451e+00
 -3.7071848e-01
 -1.6827773e-01
 -9.6148199e-01
 -6.0920510e-02
 -7.0718753e-01
 -4.4422336e-02
  2.1220632e-01
 -9.2157340e-01
  4.4677634e-02
  4.2453337e-02
  9.9028409e-02
  4.3839280e-02
  8.1218677e-03
 -9.3200700e-03
 -2.0126449e-03
  1.8364787e-02
 -5.8334481e-02
 -3.2461349e-02
 -4.7342818e-02
 -8.9094192e-03
  1.1397540e-02
 -2.4492588e-02
 -3.7034534e-02
  1.0619391e-02
 -2.6551444e-02
 -2.0778362e-02
 -7.1134930e-04
  6.7724558e-03
  1.6936837e-02
 -4.9764225e-03
  6.4828806e-03
 -5.2051619e-05
  3.1768929e-02
 -2.8767373e-04
 -1.2685597e-02
 -5.0001394e-02
  1.8382698e-02
 -3.3922970e-02
 -9.7961705e-03
 -6.8917004e-03
  1.0502873e-01
 -2.0470790e-04
  6.0568168e-03
 -6.8617389e-02
 -1.1550117e-02
 -6.9937870e-02
 -1.8276358e-02
  3.7271686e-02
  6.2318257e-05
  1.1846968e-02
  8.7413393e-02
  1.5783887e-02
 -4.2945696e-03
 -2.5685389e-02
  2.1167449e-03
  5.8518585e-02
 -2.7069140e-02
  9.7040199e-03
 -8.4278762e-02
  1.0122267e-02
 -3.9673164e-03
 -7.3972689e-03
  2.6367128e-02
  3.6277737e-02
 -3.8262032e-02
 -2.6692316e-02
 -9.4074160e-02
  2.9207457e-02
  1.5079098e-02
  5.6207605e-02
  1.7911637e-03
  1.1327605e-02
 -7.5691529e-02
 -7.8304067e-05
  7.3331617e-02
  9.6682524e-03
  1.6396824e-02
  1.2823214e-02
 -5.4936195e-03
 -4.7048982e-02
  5.2271407e-02
 -3.1157890e-03
 -1.1862440e-03
 -4.0890314e-03
  4.5224028e-03
  2.0718100e-02
 -3.1973526e-03
 -7.1912147e-03
  3.3767696e-02
 -2.8763402e-02
 -3.4954041e-02
  2.2551855e-02
  3.5715152e-02
 -1.7831182e-02
 -5.0948046e-02
 -2.3136989e-03
  1.1232812e-01
 -6.2537855e-03
  4.1333441e-02
 -4.0883988e-02
 -6.2899268e-03
  1.2157757e-03
  3.1102780e-02
 -9.7883176e-03
  4.2762300e-03
 -3.9867647e-02
  1.4984523e-02
  3.2217752e-02
 -1.9868309e-02
  6.8553333e-04
  7.6800603e-03
 -4.7583144e-02
 -4.8936550e-03
  1.2763740e-02
 -7.5444467e-03
 -1.0949926e-02
  6.0163881e-03
  1.1689638e-01
 -1.0851139e-02
  5.1869370e-02
  9.9069085e-03
 -6.2761358e-03
 -2.0223195e-02
 -5.3970949e-03
 -2.8824426e-02
  8.2590273e-03
  2.1121267e-02
 -1.1314554e-02
 -4.5499536e-03
 -1.1022556e-02
 -4.0911630e-02
 -2.5341708e-02
 -2.8689561e-02
 -3.2600516e-03
  1.2013450e-02
  1.1910229e-02
  4.3315953e-04
  2.0022996e-02
  2.9590786e-02
 -4.1729012e-03
  3.8204886e-02
  1.6919598e-02
  4.3231804e-02
  2.1408904e-02
  4.5790900e-02
  6.0931839e-02
  3.1153079e-02
 -3.3861183e-02
 -4.6897279e-03
  2.4142407e-02
 -3.7402480e-03
  8.4102474e-04
 -2.5245285e-02
 -1.0889797e-02
  3.4454018e-02
 -3.5534397e-02
 -1.5747466e-04
 -1.2373269e-02
  1.7905924e-02
 -4.2244052e-03
 -5.1262759e-02
  1.8200416e-03
 -1.2418582e-02
 -1.4071739e-02
 -4.0316742e-02
  1.2818400e-02
 -3.7924618e-02
 -2.8985678e-03
 -8.7702692e-02
  6.9489218e-02
  3.7151739e-02
 -5.5248059e-02
  1.7044647e-04
  1.9130122e-02
 -1.2005315e-02
  1.0293754e-03
 -5.6213912e-02
 -2.5152443e-03
 -5.5101146e-03
 -1.5867703e-02
  7.3343314e-02
 -5.3770333e-03
 -5.8140125e-02
 -2.6827151e-02
  1.0268684e-02
  1.5314277e-02
 -2.8850576e-03
  2.8233090e-03
 -8.8261068e-03
 -5.8012258e-02
 -8.9916335e-03
 -4.9529523e-03
 -1.3407221e+00
 -3.0955511e-01
  4.8972845e-01
 -4.8152748e-01
 -6.9162339e-02
 -2.3224574e-01
 -2.6368378e-02
  3.8579920e-01
 -1.3658817e-02
  1.9708121e-01
  1.1226236e+00
  2.1273157e-02
  6.7473012e-01
  3.1147590e-01
  1.2413511e+00
  3.8542661e-01
  2.2972232e-01
  1.1035845e-01
  4.4095986e-02
 -3.8160810e-01
  5.8827358e-01
 -6.5511875e-03
  2.7560288e-01
  1.3321730e-01
  1.7438812e-02
  1.4589375e-02
 -6.8825237e-02
  2.7238786e-02
  3.8228114e-03
  1.7168875e-03
  2.3639426e-02
 -1.4021878e-02
  4.8630189e-02
  8.1810065e-02
  2.8571026e-02
 -1.0443772e-01
  2.8297512e-02
 -7.9741687e-02
 -7.3913999e-02
 -3.8730208e-02
 -3.6129716e-03
 -4.5975495e-02
 -7.2972230e-03
  6.7367610e-03
  2.2296105e-02
  2.5583036e-02
  5.3056958e-03
 -2.5760340e-02
  3.6260355e-02
  1.9638471e-02
  2.2445494e-02
 -3.6946593e-03
 -5.7818270e-03
  8.3727218e-02
 -1.1139761e-02
  1.2045382e-02
 -1.3439134e-03
 -2.5966207e-02
  1.9410428e-03
 -1.2655141e+00
  1.1681485e+00
  4.2920103e+00
 -2.3247337e+00
  3.6176658e+00
 -9.6877402e-01
 -1.0490178e+00
  3.8788161e-01
  2.8987330e-01
 -6.6193354e-01
 -1.3808476e+00
 -1.5762572e+00
  2.3347577e-02
 -1.0266651e+00
 -1.5827994e-01
 -4.3132955e-01
 -1.2666576e+00
 -5.5675530e-01
 -2.3181431e-01
  2.2925647e-01
 -6.8384522e-01
 -1.4205322e+00
 -7.6355559e-01
 -1.7369027e-01
  1.4394751e-01
  2.8479559e-02
  2.8610098e-01
 -6.0903639e-01
  5.3233039e-02
 -1.6745302e-03
  2.4016194e-02
  2.8825978e-02
  9.7523428e-02
 -2.9044978e-03
 -6.1263639e-02
 -1.5218259e-02
 -3.1901747e-02
  6.8098150e-02
  1.5494373e-02
 -1.7079085e-02
 -9.1555947e-03
  5.7319952e-03
 -5.7945825e-02
 -3.3408254e-02
 -2.4819743e-02
  4.4181854e-02
  4.0693358e-02
  7.5645499e-02
 -1.9071868e-02
 -6.7221463e-02
  3.9471194e-02
 -5.1839769e-02
 -5.0008371e-03
 -1.1342059e-02
 -3.8673498e-02
 -6.5596484e-02
 -1.1536515e-01
  7.4396450e-03
 -2.0180142e-02
 -3.7941269e-03
 -3.5535827e-01
 -9.2485845e-03
  1.4068165e+00
  4.2521958e-03
 -1.0366883e-02
  2.8783789e-01
  2.1587063e-01
 -3.1534771e-03
  1.8987321e+00
  3.3736277e-02
  1.4815078e+00
  2.6589888e-01
  5.2077442e-01
  3.4315315e-01
 -1.2423822e-01
 -9.8387618e-03
  7.5628579e-01
 -6.3569123e-01
  4.1260013e-01
 -8.0956829e-01
 -1.0126771e-01
 -4.6508691e-01
 -2.8513014e-01
  1.6454479e-01
 -2.2999957e-02
  1.5335107e-01
 -1.1834909e-01
 -1.0697015e-02
  1.4416915e-01
 -4.0303215e-02
 -7.2415168e-03
 -5.5828989e-01
 -8.7947035e-03
 -5.3351824e-03
  1.8500771e-02
  2.6408615e-02
 -1.2645995e-02
  2.0214150e-02
 -1.3744256e-02
 -7.4356589e-03
  3.2504615e-01
  3.2672501e-01
  9.2586823e-02
  1.5579042e-02
  1.0976698e-03
 -1.7843543e-02
 -7.9482424e-01
  9.0871617e-02
 -1.6602024e-02
  6.7327498e-03
 -1.6807191e-01
  2.3526333e-01
 -6.5370165e-02
  1.2134298e-03
  3.7400417e-02
 -8.3657019e-03
 -1.5608850e-01
  2.4255829e-02
 -6.4349107e-02
 -4.2699154e-02
 -1.9313157e-01
  5.9642041e-01
  1.9218128e-02
  8.6047292e-01
 -6.9349909e-01
  9.0511787e-01
  3.9045842e-04
 -1.7225571e-02
  5.9367394e-01
  1.5549664e-01
 -4.1846748e-02
  1.3270865e-02
 -3.8693711e-01
 -2.7334306e-01
  3.5476640e-01
  1.9510963e+00
  1.0378287e-02
 -4.2606094e-01
 -1.0874054e-02
  1.9770801e-02
 -4.8331483e-04
  1.2583368e-02
  5.7071590e-01
  5.6383973e-03
  1.4997941e+00
  1.0212476e-02
 -7.1414542e-01
 -7.1654774e-02
 -5.4084587e-01
  5.1585937e-01
  3.5589128e+00
 -1.7383778e+00
  1.2233889e-01
 -1.3598928e+00
 -1.5210943e+00
  1.3895986e+00
 -7.2180048e-02
  1.5407720e-03
 -7.6731181e-01
 -1.3576379e+00
 -4.1890152e-02
  3.2560688e-02
 -8.6948270e-01
  2.7459407e+00
 -8.9200187e-01
 -2.4163818e+00
  2.0963227e-02
 -7.8312671e-01
 -3.7944797e-02
  1.6480185e-02
 -1.3883970e-02
 -3.7964765e-02
  3.5077311e-02
 -1.6459236e-03
  7.4864554e-01
  4.1168209e-02
  3.2125134e+00
 -3.6428928e-02
  1.1393247e+00
  6.3595653e-01
  3.2726175e-01
  1.7241362e-02
 -3.0670298e-02
  1.8201707e-01
  2.6688987e-01
 -1.3087037e-01
  3.6777306e-02
  2.0871853e-02
 -1.4401561e-02
 -1.2151102e-02
 -3.5436325e-02
  1.3446993e-01
  2.3843296e-02
  3.2054275e-02
  3.5445674e-03
 -5.3619009e-02
  9.4739974e-02
  2.9487357e-01
 -1.2755167e-02
 -1.3073174e-02
 -1.5254131e-01
 -2.5614795e-01
  3.4385361e-03
 -5.0293483e-02
 -1.9451633e-02
 -2.5868177e-02
 -1.3363692e-03
  2.8486084e-02
 -3.6002591e-02
 -4.3067731e-02
  1.3671353e-02
 -8.7555900e-02
 -2.3893500e-02
 -2.7352320e-02
 -1.8934984e-02
  6.5847780e-03
  3.2025422e-03
 -3.3881844e-03
  4.2698300e-03
  2.0825664e-02
 -2.8088816e-02
  8.7136868e-04
  1.0160359e-03
 -5.7103168e-02
 -8.7514324e-03
 -2.4424898e-03
  2.2423331e-02
  8.4371334e-03
  2.1275582e-03
 -5.5697978e-02
  1.5950520e-02
  2.8358743e-02
 -4.9072646e-02
  2.0621629e-03
 -1.2250674e-03
 -1.9811313e-03
  2.8666968e-02
  3.8766284e-02
  1.2674704e-02
 -3.9721277e-02
  4.7442835e-02
 -1.0543651e-02
  1.0125666e-02
  2.0354623e-02
  4.1478151e-03
  3.3321071e-02
  5.1477755e-04
  8.0767140e-04
  2.4629061e-03
 -2.7086163e-02
 -3.0893913e-02
 -8.3197625e-03
  1.8088130e-02
  2.5794460e-02
 -8.8582831e-03
  8.4142890e-03
  1.6825981e-02
  5.1251769e-02
  5.3701997e-02
  6.0770430e-02
  2.3236187e-02
 -7.4982643e-05
  1.4176678e-04
  1.4859077e-02
 -1.7489528e-02
 -1.4172655e-02
 -2.6420232e-02
  6.1399259e-02
 -2.0863460e-02
 -1.1308546e-02
 -7.8354317e-01
 -2.5429578e+00
  3.8551893e-02
 -5.2816797e-02
 -2.3150278e-02
 -1.6537136e-01
 -4.5268533e-01
 -1.4044297e+00
 -5.6756660e-03
 -3.0673174e-02
  8.4296811e-01
 -9.6955761e-02
  1.3282896e+00
 -1.2433650e-02
  7.7405822e-01
 -7.7622076e-03
 -2.2035085e-01
  1.7106414e+00
  3.6760113e-01
 -6.5463781e-02
  2.9742059e-01
  4.0139118e-01
  1.0168555e-01
  4.7909383e-02
 -7.5840569e-01
 -5.3386383e-02
 -1.1539919e-01
  4.2046931e-02
  1.3898063e-02
 -1.5289073e-02
  2.4162829e-02
  8.9390455e-03
  3.7359748e-02
  8.8425111e-03
  2.4918690e-02
 -2.1601876e-02
  9.1188289e-03
 -4.3827441e-02
 -3.1310011e-02
  6.9384016e-02
 -7.2774598e-03
 -1.0857819e-02
  5.4597504e-02
 -6.2030223e-03
  1.8026317e-02
  6.9828164e-03
 -3.7534052e-04
 -1.9239636e-02
  7.2077308e-03
  5.0301366e-02
 -2.6530318e-02
  3.4835365e-02
  7.6288059e-03
  2.1178272e-02
 -3.8676471e-02
 -8.5108936e-02
 -1.1989152e-02
 -2.2871310e-02
  4.4159789e-02
 -4.3947637e-02
  6.2685102e-02
 -5.5295690e-03
 -9.7404262e-03
  1.3117246e-02
 -3.5737365e-02
 -2.3191080e-03
  1.2745224e-02
 -2.5602100e-02
  4.6742316e-02
 -5.5405558e-03
 -9.0080354e-04
  8.9469366e-03
 -1.2424357e-03
 -9.5693976e-02
 -2.2594504e-02
  6.4763064e-03
  8.1673853e-02
 -1.4766848e-02
  1.0500731e-02
  6.4719534e-03
  1.3187576e-02
 -1.2996297e-02
 -3.9920162e-02
 -1.9689908e-02
  2.4421699e-03
 -2.1072365e-02
  1.7704895e-03
 -2.8511679e-03
  4.0679779e-03
  1.2659708e-02
 -6.1364651e-01
 -6.1771069e-03
 -6.0888328e-02
 -4.1160408e-01
 -1.7259412e-01
  1.1738883e+00
  5.7051461e-03
  2.7087924e-01
  6.1110303e-02
  6.6797739e-01
  3.1401551e-01
 -2.3760572e-02
 -6.6241873e-03
  4.4068929e-02
 -1.8373702e-02
 -1.3935455e-02
 -5.0817742e-03
 -1.1775599e-01
  3.4835141e-02
 -4.2207792e-02
 -3.6258450e-01
 -6.8858373e-01
 -1.8932010e-01
  1.6617473e-02
 -5.3612202e-01
 -1.8110361e-03
  1.7110635e-02
 -2.5700793e-02
  5.2258160e-02
  2.9145565e-02
 -1.5167152e-02
  1.8651294e-02
 -1.7118938e-02
  4.6973187e-02
 -2.2579043e-03
 -4.2108372e-02
  7.3647171e-02
 -3.6639723e-03
 -5.8211464e-02
 -5.8593578e-03
  5.8573768e-03
  1.2365365e-03
 -1.1941416e-03
  4.3040432e-02
  3.3440737e-03
 -1.4018307e-02
 -2.9043853e-02
  2.0140497e-02
 -3.6637072e-02
 -3.4637466e-02
 -8.9264270e-03
 -1.1636298e-02
  7.2759680e-02
  2.6183758e-02
  2.2722136e-02
 -7.0585306e-03
  6.0564037e-03
  1.3308802e-02
  1.2711460e-02
 -3.6305301e-02
 -1.2859229e+00
  2.5435686e+00
 -1.0114526e+00
 -3.0127573e+00
  1.1493790e+00
 -9.0601325e-01
  2.1675761e-01
 -7.7839546e-02
  1.9366139e+00
  2.7268806e-01
 -1.3043542e+00
  2.2542550e-01
  1.8610415e-01
  1.6576518e+00
  9.9478978e-01
 -1.2944284e-01
 -6.6676117e-02
 -9.4569814e-01
  7.5610477e-01
  1.3912854e+00
 -3.4176454e-01
  1.8775037e-01
 -1.9256603e+00
  1.7433192e+00
  1.1944612e+00
 -1.9466133e-01
 -9.1839157e-02
 -3.5259706e-01
  1.2137673e-01
  8.1676084e-01
  1.3154082e-02
  8.2540624e-03
  1.2563675e-02
 -1.3194494e-02
  3.4620490e-02
  3.8660793e-03
 -7.6817991e-03
 -2.7357077e-03
 -2.1938680e-02
 -6.1563868e-04
  3.6394421e-02
 -2.5398847e-02
 -2.8844111e-02
 -4.8466790e-03
 -7.3434100e-02
 -6.3577509e-03
  2.4223628e-02
 -3.3755623e-02
 -5.3303041e-03
 -4.5748778e-02
  4.7028653e-02
 -3.6101551e-03
  2.0905710e-03
  5.9310281e-01
 -4.3662861e-03
 -1.8797014e-02
 -3.6430173e-02
 -5.3708288e-03
  3.3039730e-02
  2.5267925e-02
 -4.4490989e-02
 -2.5103178e-03
 -4.7674929e-03
  2.2113258e-02
 -3.5906807e-02
  5.1145223e-03
 -3.3128347e-02
  3.9254222e-03
  5.6080163e-01
  4.3699175e-02
  6.5555781e-02
 -3.2321524e-02
  2.6151616e-02
 -2.9864185e-02
 -6.1670713e-02
  2.4016290e-03
  2.2719694e-02
  2.7135577e-02
 -1.5157213e-02
  1.9283656e-02
 -3.2270711e-02
  4.0012490e-02
  2.1160398e-02
 -4.7802716e-03
  2.9538465e-03
  8.2544135e-03
  1.1164250e-01
  4.9022241e-03
 -5.8246143e-03
  2.3828488e-02
  4.2778865e-02
 -3.8363617e-02
 -1.7233605e-03
 -5.7678934e-02
  7.4914381e-02
  5.8670480e-02
  4.7422271e-02
  1.2929692e-02
  9.0519898e-02
  6.9325939e-02
  5.6766164e-02
  1.0433606e-02
 -1.0473707e-02
 -3.0135430e-04
 -5.3937668e-03
  1.3472772e-02
  5.3162716e-02
  5.1077241e-03
 -6.1433390e-03
  1.6276417e-03
 -5.7221591e-02
  5.0276078e-02
 -1.0069543e-03
  3.1008476e-02
 -2.4669420e-02
  3.3960484e-02
  4.1524936e-03
 -1.3450331e-02
 -1.5409604e-02
 -1.7822798e-02
 -2.5536211e-02
 -9.9995591e-02
 -2.9669343e-02
 -1.5723905e-02
 -2.9030928e-02
 -1.8528067e-02
  6.1238818e-03
  1.6333590e-03
 -7.4690548e-03
  3.5729315e-02
 -6.1937398e-04
  3.6494732e-02
  1.8931068e-02
  9.5165959e-03
 -7.8600287e-02
 -1.0583200e-01
  2.2144355e-02
  2.9615775e-02
 -1.1329384e-02
  2.3643052e-02
  4.0507741e-02
 -2.3939317e-02
  4.0083607e-03
 -1.1366616e-02
  3.3402093e-02
 -1.6819205e-02
 -2.4746852e-02
 -9.9003632e-03
  4.3953866e-02
  1.2566954e-02
 -3.0991789e-02
  3.0387688e-02
 -1.7007651e-02
 -3.1298101e-02
  1.4212457e-02
  5.7893475e-03
  4.4469483e-02
 -5.9238125e-02
 -4.1731270e-03
  3.3662263e-02
  1.3503198e-02
  3.5513207e-02
  4.4743229e-02
 -1.3528502e-03
  3.0906549e-02
 -2.2334220e-02
  3.8960926e-02
  2.1640626e-03
 -1.5528753e-02
 -1.5193599e-02
 -4.5458317e-02
  7.0999429e-02
 -1.2610912e-02
 -1.8694168e-02
 -3.7768285e-04
 -4.1452372e-03
  6.3824269e-04
  1.5235241e-02
  2.6103601e-02
 -3.5696684e-03
 -1.3564389e-02
  2.6253667e-02
 -6.1674663e-03
  1.5216682e-02
 -1.0104332e-01
  1.5912225e-02
 -1.0233815e-01
 -2.4078880e-03
  6.0237832e-02
  5.8960125e-02
  3.1135032e-02
 -1.3117152e-01
  2.6809985e-02
  1.8106775e-02
  5.5703729e-02
  1.6119227e-02
 -4.3673385e-02
  4.0464126e-02
 -1.0744950e-02
  4.5310944e-02
  3.9689474e-02
  9.3354732e-03
  4.4006524e-03
 -1.0044556e-02
 -8.9340312e-03
 -9.1731854e-02
  3.0520065e-02
  3.8041654e-03
  3.4700080e-03
  9.0277381e-02
  5.6642000e-02
  2.7459584e-02
 -1.8281890e-02
 -2.7890142e-02
  2.8564725e-02
  1.2724059e-02
  2.9356193e-02
  9.9357083e-02
 -1.8005863e-02
  3.3105850e-02
  2.5907304e-02
  2.1244261e-02
  2.0778723e-02
  2.9025117e-03
  4.8376314e-02
 -1.2974681e-02
  4.2508140e-02
  5.2306419e-03
 -5.3445652e-02
  2.0131540e-02
  2.7386816e-02
 -8.4634507e-03
  2.5826052e-02
  5.2964903e-04
 -3.1731132e-02
 -5.3933379e-04
 -7.4944593e-02
  5.9316335e-03
  1.6887819e-02
 -3.5331041e-02
 -5.5207270e-03
 -2.5832597e-02
 -1.6339082e-02
  4.5079462e-02
 -1.3515754e-02
  1.7516412e-02
  2.7843213e-02
 -1.4426772e-02
  6.3490067e-03
  3.8762307e-03
  1.6239593e-02
 -3.3344293e-03
  1.5534725e-02
  1.4077492e-02
 -5.3484019e-02
 -4.1723806e-02
  6.5552577e-02
 -5.9950287e-03
  1.7103175e-02
  4.6220820e-02
 -6.3528647e-03
 -6.2064151e-03
  3.3077642e-02
  1.9305691e-02
  2.9381711e-02
 -8.3321212e-03
 -7.2309240e-03
 -3.6462075e-03
  1.1626182e-02
  9.2088975e-02
  1.7294625e-02
  4.8484009e-02
 -4.7061037e-02
 -1.1797550e-03
  6.4364970e-02
 -6.8759909e-03
 -1.8285022e-03
 -2.6668802e-02
 -1.9058302e-02
  7.3357718e-03
  6.6070940e-04
  4.9108870e-02
 -1.4478339e-02
 -7.6876618e-03
 -6.1577009e-03
  1.9614285e-02
  3.6584884e-02
  2.7400482e-02
  1.2404723e-02
  1.1819511e-02
  2.9576288e-03
  2.1049764e-02
 -2.2894835e-02
  2.1097068e-02
 -3.8349468e-03
 -1.9160070e-02
 -1.0487938e-02
  3.7386287e-03
 -1.4450265e-02
 -3.5766971e-03
  8.9907721e-03
  4.0262481e-03
  1.9238066e-02
  2.5750520e-02
  3.3113576e-02
 -1.1036571e-02
 -4.5692172e-02
  2.5814681e-03
  1.0001932e-02
  4.1208554e-02
  1.1730615e-02
 -4.0673394e-02
  1.1375252e-02
 -5.9036046e-02
  2.4958896e-03
  4.9421683e-02
  4.9579698e-03
  1.7377576e-02
  7.2554378e-03
  6.3387272e-03
  2.1966407e-03
 -1.1212576e-02
  3.5193063e-02
  3.6114898e-02
  4.3996472e-02
 -1.1602887e-03
  1.6135987e-02
 -6.3434541e-02
 -1.0145353e-02
 -1.6245361e-02
 -4.6001232e-01
  6.1626869e-01
 -2.3963822e-03
 -6.1187431e-02
 -3.7166402e-01
  2.1852073e-01
 -9.9880673e-02
 -5.7475376e-01
 -8.7726273e-02
  5.2650607e-01
  2.2344971e+00
  5.7895786e-01
  2.9207492e-01
 -2.0824924e-02
  6.1410117e-01
 -7.1531588e-01
 -1.9275635e-01
  3.2602694e-02
 -1.1228339e-02
  2.1134738e-02
  3.5230151e-01
  7.5640374e-01
  2.4903722e-02
  9.0075983e-03
  4.1169837e-02
  1.7570449e-02
  6.8279833e-04
 -9.2774019e-02
 -8.3274907e-05
  4.6560429e-03
 -1.7118834e+00
  4.3557167e+00
 -2.3830366e+00
 -4.1731143e+00
  2.1859946e+00
 -1.1789483e+00
  5.5373222e-01
 -2.4376242e-01
 -4.0478075e-01
 -8.3365418e-02
 -9.8215419e-01
  9.7493500e-01
  5.0172669e-01
 -2.6466236e-01
 -8.8650334e-01
 -1.7994871e+00
  7.6515210e-01
 -5.9515852e-01
 -4.1620612e-01
 -7.8057848e-02
 -1.5179471e+00
  5.7372272e-01
 -4.5884919e-01
  7.0727575e-01
  2.6219524e-02
  3.1399939e-02
 -3.9405093e-02
 -3.4515777e-01
  1.1803369e-01
 -2.8065089e-02
 -1.3152692e-02
  1.9486815e-02
  3.0020894e-02
 -2.6519386e-02
  1.6583510e-02
  1.6366836e-02
  5.0801195e-02
  2.0279795e-02
 -4.1049523e-03
 -2.0375507e-02
 -2.1436720e-03
 -2.6839902e-03
  6.0049769e-02
  2.0485066e-02
 -3.0155301e-02
  1.8996093e-02
 -1.9127218e-02
 -2.4970300e-02
 -2.9768236e-02
 -2.6135296e-02
  5.6028601e-02
  1.3986877e-03
  2.9400915e-02
 -1.5222665e-03
  8.8607006e-02
  1.2041789e-02
 -7.0432364e-04
 -8.9973718e-02
 -1.3992832e-02
  6.7019020e-03
 -3.1398905e-03
 -2.2427344e+00
  2.1784940e-01
  2.0469395e-02
 -2.2191947e+00
  9.8463513e-02
  2.8113538e-01
  3.4413761e-01
  3.4374103e-02
  1.6697140e-02
  1.4160069e+00
 -1.0464514e+00
  8.1649637e-01
  2.9271767e-02
  2.4228824e-02
  2.6290450e-01
 -1.0840031e-01
 -9.0434132e-03
  2.7382642e-01
 -1.0133182e-01
  1.1937979e+00
 -3.2570016e-01
  1.0472111e+00
  1.2761459e-02
 -2.4943119e-02
 -1.2196513e-01
 -2.0588638e-02
 -7.6325284e-03
  2.0433512e-02
 -1.2291998e-02
 -8.0683492e-03
 -2.5456201e-02
  1.1591808e-01
 -1.4242776e-03
  1.6227217e-02
 -6.9630869e-02
  2.4825886e-02
  1.7506685e-02
 -1.2136914e-02
  3.8461674e-03
  1.3224556e-02
 -1.6781384e-02
 -8.5444357e-03
 -1.2677805e-02
  6.2917485e-03
  5.1617038e-02
 -1.5961852e-02
  2.0259799e-02
 -4.1412981e-03
 -4.0448327e-03
  1.5058904e-02
 -5.5749778e-02
 -2.8764466e-02
  2.8329066e-03
 -2.3028350e-02
 -1.9973829e-02
 -1.1501267e-02
 -7.8951439e-04
 -5.3321145e-04
 -2.0499902e-02
  2.3004189e+00
 -1.3067907e+00
 -2.2079526e-02
  9.8594379e-01
  2.3553361e-01
 -1.2101397e-01
 -3.2010368e-01
 -2.0037933e-01
  4.9550179e-03
 -9.1146611e-02
  6.8343520e-01
  1.1884945e-02
 -1.3967377e-01
 -3.4855801e-01
  1.0431200e-02
 -8.5721397e-01
 -2.4064116e-01
  1.1404397e-01
 -3.1121323e-01
  1.5237668e-01
  2.6650500e-01
  7.6320782e-02
 -3.7637880e-01
 -3.1761891e-01
  5.2957650e-02
  7.3308329e-06
  1.3403949e-01
  2.2167411e-01
  8.7376144e-03
 -3.6904743e-01
  5.7017341e-02
  3.4489043e-02
  6.1921636e-03
 -1.2319417e-01
 -4.2898161e-04
  2.3125513e-02
 -7.4286088e-03
 -3.2542102e-02
 -6.5022901e-02
 -6.9161407e-03
  1.1063400e-02
 -3.4671314e-02
  8.3432756e-03
 -6.7777978e-03
 -5.9519713e-03
  4.6093959e-02
 -2.4331907e-02
 -3.9427571e-02
  1.4530468e-02
  1.4846569e-02
  2.7990246e-03
 -9.5753334e-03
  1.5445700e-03
  7.5419061e-03
  6.5857619e-03
  4.5376476e-02
  2.9847419e-02
 -2.5188224e-02
  3.7610065e-02
  9.9697992e-02
  3.9057050e-02
 -1.4829024e-03
  2.2595981e-02
 -4.7965936e-02
 -6.3870668e-02
 -2.6725052e-02
  1.9214423e-02
  1.8452732e-02
  2.9813591e-02
 -2.6496936e-02
 -1.3049033e-02
  4.5982294e-02
  7.2234585e-03
  4.6644174e-02
  3.8339009e-03
 -2.9076836e-03
 -5.8889185e-04
 -1.2208079e-02
 -9.7824953e-02
 -6.6319264e-02
 -6.6960976e-02
  3.9959446e-02
 -1.0272499e-02
 -3.4041055e-02
  6.1421834e-02
 -7.3109984e-02
  2.5109826e-03
  3.9976947e-02
 -5.9039462e-03
 -2.3242887e-02
 -3.9902639e-01
 -2.4290933e-01
 -4.5738887e-02
 -1.7595840e-01
  3.3933482e-01
  5.4824460e-01
 -3.6530660e-03
  2.1054088e-01
  2.6955694e-02
  9.4097413e-02
  4.2282343e-01
 -4.9199667e-02
  5.3237587e-01
 -1.7960574e-03
  1.4054380e-01
  1.5045016e-01
 -4.8698515e-01
 -5.8458477e-01
  6.3349055e-03
 -5.0791249e-02
  4.6189800e-01
 -3.7083976e-02
  1.1477327e-01
  5.9243552e-02
 -1.2920426e-02
  6.6549852e-03
 -1.4640627e-03
 -9.2557240e-03
  3.3854999e-02
  7.8092222e-03
  6.0551417e-01
  2.0221031e+00
 -1.6419061e+00
 -1.0141656e-01
  2.4439499e+00
 -7.2629768e-01
 -8.4284507e-03
  1.7782476e-02
 -1.1311136e-02
 -1.5188789e-04
 -4.0735331e-01
  4.9576765e-01
 -5.9359109e-01
 -2.1409863e-01
 -4.8849159e-03
 -6.5930158e-01
  3.1809121e-02
 -4.6113169e-01
 -7.7079338e-01
  5.7271272e-02
 -2.4048870e+00
  7.9726326e-01
 -7.4658942e-01
 -1.3221413e-01
  6.3953072e-01
  1.7798628e-01
  9.3984120e-02
  2.1097271e-02
 -8.4883654e-03
 -7.4102335e-02
 -6.8060762e-01
 -1.7005935e+00
  2.8584108e-01
  1.8621204e-02
 -1.5962195e+00
  3.3425719e-01
 -3.3905159e-03
  1.4930454e-02
 -3.5559636e-02
  7.3332883e-02
  2.6808158e-01
 -3.0524891e-02
  7.2930795e-01
  4.6566594e-01
  2.9631725e-01
  7.7096438e-01
  3.2767051e-01
  1.2886468e-01
  7.2390521e-01
 -1.2107098e-01
  6.4246333e-01
  3.2457608e-01
  2.4399985e-01
  5.6976110e-02
 -1.2386327e-01
  2.1209003e-02
 -1.7734222e-02
 -2.1447888e-01
  8.8685200e-02
  9.1041237e-02
  8.3507737e-03
  2.3789590e-02
 -1.5370041e-02
  5.9280670e-01
 -1.0434812e-02
  4.1775317e-03
 -7.2257996e-01
  3.6926817e-02
 -6.9779076e-02
  5.7915192e-02
 -2.3580720e-03
 -6.8679261e-03
  1.3256833e-02
  4.3205833e-01
 -5.9622236e-02
  2.5423600e-03
 -1.9846683e-02
  1.9841153e-02
  3.3910662e-02
 -3.5926664e-01
 -3.7349004e-01
 -2.3925286e-03
  1.3102373e+00
 -2.0344949e-03
 -3.0062097e-01
 -5.0337639e-02
 -9.4367415e-02
  2.2344317e-01
 -1.6321026e+00
  1.0317124e+00
 -8.9753062e-01
  5.4376557e-02
  3.8783029e-03
  2.6378965e+00
  1.5577671e-02
 -8.7758444e-02
  1.3436873e+00
 -1.5630204e-02
  4.6781850e+00
  5.9439614e-03
  2.7851203e-01
 -1.1714708e-02
  1.1353766e-02
  3.5006707e-03
 -1.6578963e-02
 -5.4248073e-03
  8.8196312e-04
  3.8172761e-03
  2.3181522e-03
  1.2870338e+00
  4.7150011e+00
  7.1926095e-02
  2.6819606e+00
 -7.6394621e-03
 -2.5141878e+00
 -2.2208715e-02
 -1.6365467e-02
  1.5736102e+00
 -2.5153253e+00
  2.8927937e+00
  3.9155262e+00
  1.4099131e+00
 -2.2940616e-01
 -2.3978636e-01
 -2.3748500e+00
  2.8657326e-01
  1.9563338e-02
 -9.0910614e-02
 -2.5686588e+00
  9.5408869e-01
 -1.3727081e+00
 -1.6112269e+00
  2.0881071e+00
 -9.1908938e-01
 -3.5890895e-01
 -2.6843009e+00
  6.2789547e-01
  5.8642173e-01
  1.5076664e-02
  4.0120059e-01
  4.1221350e-01
 -4.4466174e-01
  2.1918561e+00
  1.7434669e+00
  4.5529962e-01
  6.8173546e-01
 -2.0915875e+00
 -9.0331662e-01
  2.6639309e+00
  4.4237590e-01
 -5.5111068e-01
 -6.4363921e-01
 -1.2755105e+00
 -8.9477026e-01
  5.1817203e-01
  2.6136322e+00
 -1.1172168e+00
 -1.0446937e-01
 -7.5461930e-01
  1.5463486e+00
  3.7316844e-01
 -1.2297275e-01
 -1.8357255e+00
  3.5172743e-01
  6.5976131e-01
 -9.3726027e-01
  1.8453962e+00
 -7.4409175e-01
  1.1922665e+00
 -9.3923581e-01
  1.9594451e+00
  4.7260043e-01
  2.1009294e-02
  2.4724874e-01
 -3.0114096e-01
 -2.5038543e+00
  3.0408671e+00
 -8.0764284e-03
 -9.3323708e-02
 -1.5286725e+00
  1.0986918e+00
 -5.2158380e-01
 -1.4115039e-01
  1.4201791e+00
 -1.9050267e+00
  6.1161137e-01
 -7.7248119e-02
  3.1418616e-01
  1.0913959e+00
  3.0320907e-01
 -9.3435459e-03
 -3.1722436e+00
  2.2108128e+00
 -7.1060014e-01
 -2.6849186e-02
 -3.5458228e-01
 -4.3493447e-01
  1.0016899e+00
 -4.5686325e-01
 -9.1456942e-02
  4.3866372e-01
  4.5825163e-01
  9.5142975e-02
  2.0926287e+00
  9.9394280e-01
 -2.9810932e-02
 -5.2124584e-01
  9.2470419e-01
  8.0457723e-01
  1.2161284e-01
 -2.3214631e-01
  6.4427666e-02
  2.7944240e-01
  3.8537703e-02
 -2.5530109e-02
 -3.9351457e-01
  2.9069493e+00
  4.1782182e-02
 -4.5735043e-02
 -4.0495887e-01
  9.4710332e-01
  1.1381063e+00
  3.5268404e-02
 -8.6834326e-02
  3.9066190e-01
  5.6377345e-01
 -7.3526132e-01
 -4.5397755e-02
 -1.0005380e+00
  6.8412679e-01
 -3.4439933e+00
  1.6043544e+00
  4.5449706e-03
 -1.0303997e+00
  3.8943484e+00
 -2.7824140e+00
  2.5553635e-01
  7.1907926e-01
 -4.6824656e-02
  3.4129581e-01
  1.3005282e-01
  1.6339422e+00
 -3.6333210e+00
  8.7921940e-02
  1.4450583e-03
  7.2421896e-01
 -2.5398893e+00
  6.3356566e-01
  3.1766063e-01
 -1.0837486e+00
 -5.5443758e-01
  2.2252049e-02
 -3.6091042e-01
 -5.6914908e-01
  5.6063231e-02
  1.0298314e-03
  2.4238717e-02
  9.6030992e-01
 -9.6268421e-01
  2.3460650e+00
 -1.2383690e-02
  7.6861513e-01
 -1.9391581e+00
  1.6428167e+00
 -3.4467268e-01
  2.0037541e+00
 -4.6746913e-01
  1.8533632e-01
  1.9925807e-02
  1.6490299e+00
 -1.7445420e+00
 -1.2992331e+00
 -1.8981735e-03
 -7.4854843e-02
 -5.1788747e-01
 -8.7893617e-01
 -1.2539268e+00
  1.0828738e+00
  1.3129176e+00
  8.9214385e-01
  2.1309783e+00
 -3.2122394e-01
  1.7049128e+00
  2.0584841e+00
 -8.9311349e-01
  2.7157090e+00
 -2.7663317e+00
 -1.1899577e+00
  5.2453309e-01
 -3.6286643e-01
  7.0048344e-01
 -1.5496627e+00
 -1.0139318e+00
 -1.0544126e+00
  2.6645690e-01
  3.2083485e+00
 -2.2817013e+00
 -1.1081134e+00
 -3.3196729e-01
  7.3396498e-01
  2.3466904e+00
 -2.8135803e-02
  2.4156838e-03
 -1.2590913e+00
  7.0327646e-01
 -2.7724099e-01
  8.1643122e-01
  6.6101395e-02
 -2.3891058e-02
  4.8915258e-01
 -1.4709608e-01
  1.4207890e+00
 -1.1855311e+00
 -1.6165118e-01
  1.2200035e+00
  1.4572439e+00
 -1.3971887e+00
  1.9258641e+00
  2.0958705e-01
 -7.2139484e-01
 -7.2869855e-01
 -9.9423409e-01
 -1.2502786e+00
 -1.5623587e+00
 -1.7265791e+00
 -1.4523365e-01
 -1.0325271e+00
 -1.3077756e+00
  1.2025254e-02
 -4.0335053e-01
 -1.1523438e+00
 -1.7147996e+00
 -6.5376842e-01
  2.9556179e+00
 -2.3046103e+00
 -1.5913094e+00
 -4.1656005e-03
 -1.5665205e+00
  5.1338243e+00
  1.2152119e+00
  8.0084456e-03
 -2.5743428e-01
 -2.0259600e+00
 -6.0789630e-02
  2.3534586e+00
  2.7328367e+00
 -4.9503961e+00
 -1.5224886e+00
  2.7951398e-01
  9.1023594e-01
 -8.7686402e-01
 -2.8532007e+00
 -1.6088476e-02
 -4.0433988e-01
  1.9681743e+00
 -6.2602729e-01
  1.2792153e+00
 -2.5801936e-01
 -1.0092305e-01
  1.7260052e-01
  8.4814884e-02
  8.2048684e-01
 -4.2905843e-01
  7.4386853e-01
  5.4550028e-01
  1.6546834e+00
  9.3235427e-01
 -2.3978453e-02
  5.6542766e-01
  2.6399046e-01
 -5.8003461e-01
 -4.2401415e-01
 -4.1585934e-01
 -2.3292341e+00
  2.8095278e-01
 -3.7381209e-02
  4.8540604e-01
 -4.3058190e-01
  3.0663306e-02
 -1.6223869e-01
  1.0673543e+00
 -3.2270724e-01
  1.6096928e+00
  7.0881331e-01
 -1.3262657e+00
 -8.6658448e-01
  1.6230518e+00
  1.2062315e+00
  3.0736292e-02
 -4.8507249e-01
  4.5344341e-01
 -1.7728055e+00
 -5.8851665e-01
 -7.8170061e-01
  1.3807112e+00
  9.6331704e-01
 -7.3222792e-01
 -1.1520298e+00
  2.0514281e+00
  2.6125135e+00
 -1.5638385e+00
  1.2422403e+00
  1.1010884e+00
 -1.8981603e+00
  4.6118131e-01
  5.5944973e-01
 -4.9849726e-02
  8.7087512e-01
 -3.2569520e+00
 -6.7864263e-01
  6.7467374e-01
  2.2641261e-01
  5.7670671e-01
 -1.8522002e+00
  1.1910535e+00
  1.4858695e+00
 -1.4665792e+00
 -8.9412475e-01
 -1.5555643e-02
  4.9453866e-01
 -4.9826938e-01
 -1.3485178e+00
 -2.2061069e-01
  1.9170229e-01
  1.3705933e-02
 -1.4263954e+00
 -4.8576653e-02
  9.5411420e-02
 -5.1099718e-01
 -7.7234089e-01
  9.3939744e-02
 -7.5306031e-03
 -8.4642690e-01
 -1.2952981e+00
 -2.2496290e+00
 -9.5707327e-01
 -7.8080469e-01
 -2.2568528e-02
 -5.0419599e-01
 -1.5813330e-01
  1.2654436e-02
  1.7096540e+00
  2.0812116e+00
 -9.0956151e-01
 -2.7438506e-01
 -9.2771471e-01
 -5.9655833e-01
 -2.1653114e-01
 -2.0754540e-02
 -1.0045508e-02
  3.5521922e-01
 -4.9730367e-03
 -3.0306621e-02
 -6.1810076e-01
 -7.2760032e-03
 -2.4689667e-01
 -9.3479287e-03
  1.0606502e-01
 -2.1872017e+00
 -2.3451116e+00
 -5.4334048e-03
  1.5824664e-01
 -6.9883293e-01
 -1.0507596e+00
 -1.2689747e-01
  9.2054254e-01
 -3.1092903e-01
 -1.7526303e-01
 -2.2519223e-02
  3.9360362e-01
 -5.3563565e-01
  3.8229361e-01
 -4.3745410e-02
  5.3959233e-01
 -1.3020818e+00
 -2.7115783e-01
 -2.8851228e-03
  3.7539884e-01
 -7.9382402e-01
 -7.2198820e-01
 -1.5458927e-02
  1.8888235e-01
 -3.7149054e-01
 -7.6774979e-01
 -6.1468780e-01
 -9.9117738e-01
  1.2416965e-01
 -3.5376068e-02
  1.4645875e-01
 -6.5255439e-01
 -2.8357333e-02
 -1.6877948e+00
  1.2905836e-02
  6.6553319e-01
  2.6627953e+00
  2.2042987e+00
  6.0230404e-01
 -1.0562721e+00
  5.1625454e-01
 -1.3156476e+00
 -8.4150290e-01
 -1.5344197e+00
  5.0960559e-01
 -1.1831834e+00
  1.4424776e+00
  2.9541078e+00
  7.8359121e-01
  3.1802005e-01
 -9.7326213e-01
 -1.2878127e+00
 -2.3101887e-01
 -8.3778602e-01
  3.0522365e-02
 -2.4095502e+00
  5.7583090e-02
 -8.2950598e-01
  3.4058121e-01
 -9.5952678e-01
  9.8995632e-01
  1.6555600e-01
 -4.8826955e-02
  9.8164451e-01
  2.2056359e-01
  6.1222214e-01
 -2.2871600e-02
 -1.2405845e+00
 -1.1847482e-02
 -7.0693541e-01
  3.5584363e-01
 -1.9599315e+00
  8.6801358e-02
 -9.8468047e-01
 -4.7543454e-01
 -9.5725805e-01
  1.7035109e-01
 -6.1086416e-01
  9.6900873e-03
 -7.6509431e-02
  6.1647040e-01
 -8.5837252e-02
 -1.0432316e+00
  5.4049317e-02
 -1.2632349e+00
  1.7477356e-02
 -7.1644142e-02
 -5.1446116e-01
  1.7515757e+00
  4.4124016e-01
 -1.0891576e-01
  1.3117826e-01
 -1.4545732e+00
  1.5600188e-01
 -1.0264823e+00
  1.7163970e+00
 -2.1161871e+00
 -2.7659209e+00
  1.1914859e-02
 -1.5993770e+00
  2.5635638e+00
  1.2586774e+00
 -2.1482437e+00
  4.7730151e-01
 -1.1859236e+00
  1.6749135e+00
 -4.9972497e-02
  1.1395724e+00
 -1.5923337e+00
 -1.3794301e+00
 -1.8817082e-01
  3.8936225e-01
 -2.4042067e-01
 -8.5450149e-01
 -5.9953374e-01
 -3.0346897e-01
 -4.4122183e-01
  8.8261575e-01
 -8.0668241e-01
  4.2881086e-01
 -1.5606081e+00
  4.2859793e-01
 -1.3742676e+00
  9.9328347e-03
 -1.2500426e+00
 -1.0895256e+00
 -7.3715031e-01
 -2.2609261e-01
 -1.7763856e-01
 -1.1882263e+00
  1.6049725e-01
  7.2406143e-02
 -7.9275995e-01
  1.9274653e+00
 -1.0577695e+00
 -1.1794700e-01
 -2.7929199e-01
  3.0877551e-01
 -1.2493926e-01
  1.8234780e+00
  3.6582991e-02
 -1.1440312e+00
 -1.6081604e-01
  7.2431898e-01
 -4.3476064e-02
  5.7223046e-01
 -3.0296910e+00
 -2.4203742e+00
 -1.8088571e+00
  7.9032326e-01
  3.2279447e-02
  1.4702298e-02
  8.5589492e-01
 -4.4538689e-01
 -1.6863515e+00
  2.2277474e+00
  6.4718942e-03
 -5.3397065e-01
 -5.3375709e-01
 -1.8962531e+00
  9.2306399e-01
  6.1104411e-01
 -9.9028684e-03
 -1.2740175e+00
 -8.4185861e-02
  2.9369900e-01
 -3.2829079e-01
  1.5537256e+00
 -2.9375482e-01
  1.9377233e-02
 -7.7071440e-01
  1.3044652e+00
 -1.8310229e+00
 -5.2994013e-01
 -3.1108278e-01
 -7.4026924e-01
 -1.0798825e+00
  4.3720734e-01
 -7.8779936e-01
 -6.1715835e-01
 -7.9118240e-01
  1.4634629e-01
 -1.3045032e+00
  4.9530282e-03
  4.9530282e-03
  4.9530282e-03
  4.9530282e-03
  4.9530282e-03
  4.3608043e-02
  4.3608043e-02
  4.3608043e-02
  4.3608043e-02
  4.3608043e-02
  2.3235502e-02
  2.3235502e-02
  2.3235502e-02
  2.3235502e-02
  2.3235502e-02
  1.6144104e-02
  1.6144104e-02
  1.6144104e-02
  1.6144104e-02
  1.6144104e-02
  5.8560250e-03
  5.8560250e-03
  5.8560250e-03
  5.8560250e-03
  5.8560250e-03
  1.1530891e-02
  1.1530891e-02
  1.1530891e-02
  1.1530891e-02
  1.1530891e-02
